<?xml version="1.0"?>
<PMML version="4.2" xmlns="http://www.dmg.org/PMML-4_2" xmlns:xsi="http://www.w3.org/2001/XMLSchema-instance" xsi:schemaLocation="http://www.dmg.org/PMML-4_2 http://www.dmg.org/v4-2/pmml-4-2.xsd">
 <Header copyright="Copyright (c) 2016 Jeena" description="Generalized Linear Regression Model">
  <Extension name="user" value="Jeena" extender="Rattle/PMML"/>
  <Application name="Rattle/PMML" version="1.4"/>
  <Timestamp>2016-03-09 09:21:20</Timestamp>
 </Header>
 <DataDictionary numberOfFields="3">
  <DataField name="Sepal.Width.binomial" optype="continuous" dataType="double"/>
  <DataField name="Sepal.Length" optype="continuous" dataType="double"/>
  <DataField name="Petal.Length" optype="continuous" dataType="double"/>
 </DataDictionary>
 <GeneralRegressionModel modelName="General_Regression_Model" modelType="generalizedLinear" functionName="regression" algorithmName="glm" distribution="binomial" linkFunction="logit">
  <MiningSchema>
   <MiningField name="Sepal.Width.binomial" usageType="predicted"/>
   <MiningField name="Sepal.Length" usageType="active"/>
   <MiningField name="Petal.Length" usageType="active"/>
  </MiningSchema>
  <Output>
   <OutputField name="Predicted_Sepal.Width.binomial" feature="predictedValue"/>
  </Output>
  <ParameterList>
   <Parameter name="p0" label="(Intercept)"/>
   <Parameter name="p1" label="Sepal.Length"/>
   <Parameter name="p2" label="Petal.Length"/>
  </ParameterList>
  <FactorList/>
  <CovariateList>
   <Predictor name="Sepal.Length"/>
   <Predictor name="Petal.Length"/>
  </CovariateList>
  <PPMatrix>
   <PPCell value="1" predictorName="Sepal.Length" parameterName="p1"/>
   <PPCell value="1" predictorName="Petal.Length" parameterName="p2"/>
  </PPMatrix>
  <ParamMatrix>
   <PCell parameterName="p0" df="1" beta="-0.520051374068118"/>
   <PCell parameterName="p1" df="1" beta="0.130912742482927"/>
   <PCell parameterName="p2" df="1" beta="-0.0651716744909239"/>
  </ParamMatrix>
 </GeneralRegressionModel>
</PMML>
